34 128
34 -0.015013706 0.033992413 0.032713264 0.017292889 0.03932497 -0.13933486 0.06312619 0.11161054 -0.11445585 0.13666824 0.14810607 -0.11706784 -0.10104392 -0.049521536 0.03796532 -0.013715502 0.18934242 0.064293735 -0.08941849 0.22240622 0.18159057 0.11268316 0.1449244 0.14389867 -0.12099737 0.084484324 -0.14908597 0.017271912 -0.06379058 -0.16805893 -0.2449452 -0.041048966 -0.019546645 -0.0009834673 -0.12492793 0.029764649 0.30466747 -0.024020426 0.22140156 -0.07292164 0.010317197 0.1709869 -0.04876349 -0.11188615 -0.04190624 0.11985396 -0.017634183 0.013333714 -0.012574571 0.032751195 0.008974782 0.117584124 0.3233371 0.12043529 0.12607451 0.0918737 0.11796056 0.06783102 -0.019971533 0.07847576 0.040910084 -0.10992418 0.090550356 0.06728342 0.14913191 -0.04813634 0.110091336 0.036685366 -0.05156264 -0.075666636 0.14177229 -0.029201675 -0.05708686 -0.03358965 -0.09119421 -0.08425862 -0.057224933 -0.09575985 -0.08666665 0.26461893 0.07842217 -0.096183896 -0.045769613 0.24035539 -0.016168352 0.06929791 0.22792901 -0.03135931 0.11702904 0.10571118 -0.026483044 -0.18322688 -0.029235875 -0.014557124 0.15431443 -0.03673921 -0.3185066 -0.16053213 0.020031711 -0.03579584 -0.26453352 -0.021272488 0.095130034 0.16443892 0.1403182 -0.026274722 0.092855796 -0.052295674 0.018259158 -0.22632636 -0.012764695 -0.048825845 -0.02673305 -0.05962791 -0.039025657 -0.04734735 0.13168867 0.17312714 0.08785525 0.06253648 -0.1528807 -0.12596264 0.025886312 -0.034837972 -0.044285957 -0.18276875 -0.000305966 0.031476922
1 0.008571671 -0.16855016 0.09522906 -0.017567275 0.07712027 -0.095866464 0.121349715 -0.0840181 0.1281686 0.05953438 0.29343918 -0.07761447 0.034327473 -0.1485876 -0.025307406 0.026999107 -0.032320675 0.07549716 0.01641308 0.09012973 0.21496134 0.0830805 0.035005625 0.038386025 -0.21779326 0.08919185 -0.085194394 0.13869452 0.11816891 -0.023500716 -0.17091157 -0.019011915 0.011012309 0.015358784 -0.10008166 0.08403172 0.20558947 0.025453309 0.32805288 -0.1225373 0.03174037 0.13951789 -0.07881972 -0.23620327 0.06085523 0.01843228 0.10862678 -0.22084072 -0.010476758 0.015754076 0.18072759 -0.05255546 0.06436266 0.15357156 0.0010576493 -0.029315224 0.091413945 -0.030459292 -0.18235283 0.0050337813 0.08184648 -0.1557448 0.08641246 0.046238344 0.011526792 -0.03585298 0.043173015 0.109038346 0.019176528 0.066972665 0.117315896 -0.051477555 -0.13253987 0.13296829 -0.0068157455 -0.119873956 -0.027603282 -0.061876085 0.07179123 0.30657393 0.0662233 -0.12750179 0.010499964 0.17996334 0.10119726 0.07707207 0.12156848 -0.21113282 0.13985048 0.047133606 -0.05210029 -0.042955227 -0.055281624 0.010262071 0.19652715 -0.10410142 -0.19142695 -0.25070226 -0.041038446 -0.04361432 -0.21509072 0.07281788 -0.017875979 -0.019573346 0.0066706315 0.031325802 0.042746875 -0.09625847 0.07706726 -0.102157384 0.034002617 0.05173454 -0.0036459009 0.05765238 0.07857275 -0.09275526 0.07711296 0.13805981 0.05474677 0.06421291 -0.04638027 0.012427734 -0.020812431 0.13335568 -0.009751836 -0.15726574 -0.037853386 -0.045803983
33 -0.013768151 0.0443344 0.021342402 0.005413337 0.044876292 -0.14331813 0.06325764 0.1274179 -0.13361074 0.14937977 0.14139035 -0.11590906 -0.11389512 -0.043502096 0.05257365 -0.012304999 0.21031503 0.06303678 -0.09667042 0.23651157 0.18186738 0.114752606 0.14906529 0.14532281 -0.11382547 0.07160059 -0.1581398 -0.0015888053 -0.067101754 -0.17821851 -0.25506568 -0.04450262 -0.021445846 -0.002953004 -0.12641163 0.034175355 0.31043974 -0.021756392 0.21112019 -0.06573146 0.029267741 0.16506217 -0.034036722 -0.10215709 -0.054306492 0.13405913 -0.025705313 0.0149590345 -0.008225325 0.030436194 0.0011301272 0.13434325 0.3520603 0.11050657 0.14400272 0.10457791 0.12104131 0.08271892 0.0011109832 0.073619716 0.04393058 -0.10742582 0.08563612 0.07614377 0.15919757 -0.055534746 0.12136463 0.036022127 -0.068892226 -0.09027901 0.14901629 -0.026845515 -0.04939134 -0.039537266 -0.101228945 -0.087852806 -0.07186357 -0.10608402 -0.09378783 0.27626535 0.09709811 -0.103487685 -0.060271345 0.25589436 -0.009235658 0.074831 0.24245852 -0.018004611 0.12759884 0.1077643 -0.029699946 -0.19401793 -0.028560258 -0.016099876 0.14743732 -0.026151082 -0.32885182 -0.15661278 0.01571054 -0.04525554 -0.25834334 -0.019607443 0.10888899 0.17568053 0.150056 -0.02952999 0.10515107 -0.052914795 0.019183258 -0.23826876 -0.018217867 -0.03832502 -0.02927102 -0.07512148 -0.051258884 -0.04965575 0.13349399 0.1828341 0.09450923 0.06787128 -0.16557954 -0.12799802 0.02178655 -0.04235243 -0.049882974 -0.18068452 0.013585565 0.038764395
3 -0.014762373 -0.08888399 0.074023716 0.0010510812 0.059835643 -0.12237936 0.08606819 -0.010254979 0.016041528 0.09234189 0.240848 -0.096050024 -0.02653 -0.12204251 -0.0012400092 -0.00057550974 0.06384085 0.07559719 -0.036384087 0.1571669 0.20490259 0.09580366 0.082135834 0.10363892 -0.18714963 0.105320714 -0.12319576 0.089698926 0.028527893 -0.10464421 -0.2070409 -0.04233182 -0.009391415 0.01219385 -0.10945042 0.06656549 0.25955763 -0.011451373 0.30751407 -0.093674794 0.020261716 0.16729458 -0.07104724 -0.18175513 0.00923955 0.06738419 0.06873207 -0.11642152 -0.009258611 0.005835498 0.121463604 0.020069277 0.1898608 0.14817126 0.04735941 0.0340781 0.10062585 0.002932445 -0.11753151 0.0539496 0.080651335 -0.14559262 0.09503318 0.07374552 0.07587926 -0.041990884 0.0822856 0.08265597 0.0036107716 0.0045577 0.13314636 -0.06825058 -0.10995091 0.05238289 -0.045633882 -0.105753824 -0.043587547 -0.080042265 0.013996984 0.30640107 0.06887448 -0.1196339 0.003749883 0.22074711 0.039124694 0.083482735 0.15795544 -0.13163228 0.12765537 0.0662879 -0.034712855 -0.09843445 -0.047488328 0.009221516 0.1920304 -0.09624214 -0.2705517 -0.2238262 -0.013253763 -0.044809397 -0.25809276 0.026716242 0.03218201 0.070438094 0.07046526 0.013016879 0.07066708 -0.09653217 0.066515535 -0.17375699 0.02184806 -0.0013937387 -0.00341245 0.0019964802 0.036414493 -0.08884579 0.09482587 0.15077086 0.06835683 0.055054665 -0.1067161 -0.046193663 -0.0005934109 0.06929916 -0.043331582 -0.18417868 -0.02150895 -0.026771722
2 -0.014582743 -0.12691718 0.069629334 -0.010037212 0.060525276 -0.107714124 0.09960277 -0.043736465 0.045795564 0.078744225 0.2541442 -0.079776 -0.013540908 -0.12698601 -0.0045561525 0.0048396564 0.028307445 0.074726276 -0.013082184 0.12388715 0.19623417 0.07921476 0.057871662 0.09307774 -0.18526663 0.10067842 -0.09665706 0.09940737 0.06787279 -0.08644621 -0.18889453 -0.040702716 0.0031505502 0.0063995738 -0.1084008 0.083223365 0.23421851 -0.00040939904 0.31269893 -0.10963054 0.02732316 0.16037808 -0.08102965 -0.19524233 0.03749233 0.042984594 0.07555505 -0.15375558 -0.00062697375 0.0061768848 0.14625451 -0.0080616595 0.14679167 0.14462087 0.024782006 0.016401423 0.08874867 -0.02087487 -0.12985091 0.040307056 0.08560899 -0.1382681 0.08419591 0.078584135 0.039150402 -0.027728181 0.06721976 0.09246665 0.011582446 0.025575852 0.13194653 -0.06738442 -0.11157278 0.077833705 -0.030996626 -0.09255457 -0.042985294 -0.062613666 0.049116608 0.30641398 0.05974528 -0.12239803 0.013737959 0.19927986 0.050887145 0.0687369 0.13905975 -0.16419032 0.13443 0.047319196 -0.036254186 -0.072771326 -0.044911817 0.00702848 0.19076423 -0.09709155 -0.24142268 -0.22790428 -0.019462736 -0.040399518 -0.23475271 0.05622917 0.0021448927 0.03522467 0.059408266 0.032522038 0.062167574 -0.10246515 0.07276533 -0.14412113 0.03612342 0.022348646 -0.003271959 0.018992852 0.05512029 -0.09970211 0.0857501 0.13862015 0.06644356 0.066375345 -0.07691718 -0.019576434 -0.01579681 0.09429701 -0.037712257 -0.17394857 -0.028585302 -0.044508833
32 0.011580311 -0.047601417 0.06462126 -0.0050949696 0.058273185 -0.1145881 0.07630912 0.029127624 -0.024251662 0.1047696 0.19920412 -0.11765797 -0.054643396 -0.08141807 0.014751001 -0.0033966985 0.100374795 0.0582415 -0.056209184 0.16387743 0.19526 0.10125324 0.10745985 0.10070545 -0.1647447 0.08617864 -0.13381657 0.05260446 0.0023569409 -0.109997645 -0.22682871 -0.021195972 -0.0078035654 0.0066123996 -0.10319748 0.039592817 0.26521844 0.0071083563 0.24663702 -0.08095895 0.025169205 0.14275138 -0.06099138 -0.14994569 -0.006875478 0.07619226 0.03572757 -0.08757218 -0.018674 0.034364987 0.067849874 0.056123678 0.22732292 0.1320987 0.07495907 0.050587624 0.11501376 0.039462306 -0.08799831 0.053498223 0.05880172 -0.13125543 0.10279669 0.0644718 0.095640376 -0.049838938 0.08835586 0.055555385 -0.033340845 -0.033188146 0.13272467 -0.032831416 -0.08500725 0.030287292 -0.059603736 -0.10284546 -0.051404618 -0.09099724 -0.03728472 0.27441707 0.08487429 -0.10739845 -0.024607431 0.21456498 0.029538482 0.08066664 0.1840876 -0.08953306 0.12119866 0.09033571 -0.048369613 -0.12604417 -0.036865816 -0.004989276 0.16308309 -0.051947568 -0.26787946 -0.1897626 -0.012819389 -0.04744777 -0.22983222 0.006863422 0.054386143 0.09929131 0.08824825 -0.016048659 0.07636195 -0.065429494 0.04328636 -0.1765362 -0.00702803 -0.008296921 -0.008093457 -0.017264603 -0.009536289 -0.0559912 0.10268231 0.16354851 0.0796643 0.07851559 -0.10283578 -0.07956471 0.0038501832 0.038486827 -0.021576164 -0.16638424 -0.020379478 0.017300386
4 -0.01155041 -0.09922976 0.06384447 0.0007665488 0.067885496 -0.10763925 0.09457521 -0.014868817 0.029796554 0.08673166 0.23461992 -0.10132389 -0.030154726 -0.11527126 -0.005952653 0.010485726 0.059978947 0.06730117 -0.02564095 0.1577581 0.20761108 0.08896712 0.07157171 0.09231282 -0.18984345 0.09665719 -0.11247149 0.08833709 0.040298905 -0.09933061 -0.19100572 -0.040918306 -0.009076639 0.014303922 -0.10917901 0.07625298 0.25054967 -0.000755021 0.302426 -0.102494 0.019560358 0.1588105 -0.06295917 -0.18866153 0.021110434 0.056068506 0.07225879 -0.12228901 -0.012780203 0.006934082 0.11397982 0.012110733 0.17252281 0.14410025 0.048470404 0.016241813 0.10045594 -0.00023053095 -0.11432083 0.032658476 0.07631056 -0.1437884 0.08837959 0.063743025 0.06559617 -0.027783962 0.07100366 0.08719672 -0.007952119 0.019522931 0.1331452 -0.062484995 -0.104729235 0.071576305 -0.036638312 -0.10041222 -0.04657298 -0.07516888 0.01997013 0.29616496 0.06492953 -0.119055435 -0.0056560007 0.1966826 0.04480008 0.07086164 0.1541704 -0.13599579 0.1283699 0.059632838 -0.027518705 -0.095662445 -0.048342094 1.8707797e-06 0.18441856 -0.08773445 -0.25118008 -0.21150267 -0.025386846 -0.03345131 -0.2367933 0.039233863 0.010738837 0.052579094 0.071851455 0.0238965 0.05757843 -0.08972558 0.06022305 -0.15883699 0.015311844 0.010977793 -0.0045193825 -0.0036883305 0.049595192 -0.08468706 0.09694986 0.146377 0.06467455 0.050017435 -0.087855086 -0.031341728 -0.00959756 0.07333111 -0.029820232 -0.16579404 -0.0064906213 -0.01772903
24 -0.0052622715 0.0421406 0.043578744 0.0018195033 0.043023143 -0.14733228 0.053699024 0.119697064 -0.11163277 0.13643007 0.14858735 -0.121070564 -0.1003966 -0.05885386 0.04361688 -0.015033763 0.19399585 0.06782632 -0.08855378 0.24002115 0.18735683 0.107393205 0.1530506 0.13588922 -0.13296722 0.08969598 -0.16050328 0.010114287 -0.05266733 -0.16554722 -0.2614049 -0.025439143 -0.030464003 0.0007965875 -0.11557187 0.030829681 0.3108938 -0.0061638416 0.21190384 -0.07001213 0.02152947 0.17115593 -0.042525355 -0.10729621 -0.038652927 0.12507077 -0.017474858 -0.0052744104 -0.019357882 0.036695883 0.009315488 0.12205968 0.33814028 0.13285369 0.13041478 0.09984639 0.11955534 0.09132753 -0.021128982 0.065265164 0.035452202 -0.11563578 0.10513166 0.064827606 0.15451245 -0.051104393 0.117839456 0.030280067 -0.05852018 -0.08835898 0.14062908 -0.039529994 -0.061731014 -0.03140337 -0.09709636 -0.09043626 -0.06666382 -0.114661105 -0.09569897 0.27575374 0.088755876 -0.10524798 -0.04382048 0.24883726 -0.0007976498 0.071694344 0.23464218 -0.025202911 0.12531245 0.10691319 -0.044941828 -0.19076551 -0.028447947 -0.00821021 0.1473411 -0.02641413 -0.31543428 -0.15258498 0.028945701 -0.052879445 -0.27211604 -0.023996543 0.10431214 0.1697431 0.14287288 -0.031479415 0.10076032 -0.06030917 0.009895245 -0.23516768 -0.019877583 -0.038058087 -0.026417006 -0.066847354 -0.043116122 -0.05153922 0.1407174 0.17056197 0.09774811 0.07564899 -0.15383495 -0.13431911 0.024858467 -0.037950672 -0.044346426 -0.19252884 0.006961854 0.035125222
14 -0.016240997 -0.070949435 0.055058345 -0.0029768054 0.06365359 -0.104744196 0.08161753 0.0015026634 0.010041724 0.09959514 0.2154556 -0.09075172 -0.035581857 -0.10675076 0.0008632573 0.003435248 0.07813705 0.065179445 -0.042184465 0.16043556 0.1839116 0.08359784 0.079848655 0.10215842 -0.17289929 0.09183202 -0.11629864 0.070985876 0.019187607 -0.10751908 -0.19233494 -0.03958787 -0.011552613 0.0055519002 -0.104407206 0.06806223 0.2393163 -0.010467782 0.27808222 -0.088583924 0.014844267 0.15540747 -0.07105838 -0.17229486 0.010520497 0.06365558 0.057293985 -0.0933092 -0.014144169 0.017560288 0.099364124 0.03745868 0.19911018 0.12612186 0.050899554 0.039470866 0.101300195 0.017168684 -0.08987615 0.05201258 0.06241316 -0.12369689 0.08162274 0.07614623 0.07902654 -0.032079246 0.08424982 0.07452677 -0.013455779 0.002070519 0.12686414 -0.05414545 -0.08544147 0.046228558 -0.042516027 -0.09891768 -0.0410921 -0.06655603 0.0057423203 0.2861041 0.06924791 -0.1145181 -0.009596021 0.20385908 0.03019111 0.07060649 0.15826641 -0.1140854 0.11963815 0.060590673 -0.026799398 -0.105830595 -0.040099144 -0.0042889193 0.16770636 -0.08393533 -0.25342566 -0.2037188 -0.011062714 -0.045653462 -0.23580869 0.020048143 0.021584323 0.075451836 0.082530044 0.010316035 0.062163252 -0.08689114 0.0591586 -0.16140406 0.014528122 0.0026626226 -0.0055168 -0.0067414828 0.021954667 -0.08481129 0.088046715 0.14108425 0.0680378 0.06374569 -0.09560618 -0.05033677 0.0038397561 0.056002535 -0.03729532 -0.15932076 -0.009241949 -0.021576261
30 -0.00625095 0.024817394 0.028966917 0.00856418 0.047486026 -0.12054923 0.0628701 0.08836062 -0.09075966 0.13064107 0.15130319 -0.11529586 -0.091695644 -0.05358904 0.043233942 -0.0023098392 0.166081 0.06454607 -0.07849831 0.22344786 0.17607278 0.1103298 0.12959254 0.13748518 -0.13635708 0.089632146 -0.14538796 0.015320251 -0.04764719 -0.1424341 -0.23548648 -0.03616529 -0.018247036 0.0036700882 -0.12167046 0.026227897 0.29204217 -0.010571722 0.22123812 -0.07367889 0.012091512 0.16142993 -0.035251826 -0.11692544 -0.041767187 0.10633705 -0.01093315 -0.010243756 -0.016923333 0.019889057 0.02991435 0.0930273 0.30382115 0.12267153 0.10803423 0.08875164 0.115330234 0.06461177 -0.031493787 0.058539804 0.035322197 -0.11332793 0.08426996 0.0610789 0.13596374 -0.046525758 0.10308891 0.032941923 -0.051741347 -0.066896 0.13275644 -0.028746543 -0.059515648 -0.009211773 -0.09087536 -0.07824159 -0.060340967 -0.08729268 -0.081489354 0.2604025 0.0784318 -0.09549024 -0.048041318 0.21531479 -0.009246064 0.060955346 0.20913242 -0.03429627 0.11426738 0.10205324 -0.033535033 -0.16748108 -0.039280638 -0.019200861 0.151784 -0.044333063 -0.29413202 -0.1446484 0.019945927 -0.04593328 -0.24081789 -0.025115885 0.08264283 0.14025992 0.11967029 -0.016914034 0.092435114 -0.046062764 0.015509107 -0.21019304 -0.0016719064 -0.031143349 -0.022728482 -0.054647405 -0.024493318 -0.052260526 0.11185238 0.15747653 0.086824 0.064341746 -0.13386962 -0.11527128 0.018493162 -0.019230887 -0.03976439 -0.17871274 -0.0017642595 0.02483012
28 -0.02214245 0.035062317 0.037010495 0.015751475 0.039776955 -0.13744563 0.066738896 0.09965771 -0.11366772 0.14025031 0.15766159 -0.12360695 -0.09347292 -0.06568402 0.043058354 -0.014118216 0.1955068 0.07100982 -0.080365025 0.23401554 0.1752461 0.12106415 0.1362951 0.14328666 -0.13846786 0.0848487 -0.16007888 0.006367428 -0.061036922 -0.16853473 -0.2564558 -0.03266742 -0.03678016 -0.0031273565 -0.1133998 0.039075654 0.31430358 -0.011454362 0.22885524 -0.08164215 0.02835863 0.17155705 -0.038908843 -0.10688863 -0.034840956 0.1284288 -0.02121357 -0.009831186 -0.012885062 0.031540398 0.023425894 0.11888152 0.3343816 0.12223961 0.12765178 0.08752681 0.10624349 0.084765576 -0.02245505 0.07108167 0.04286132 -0.118272096 0.101318136 0.07775088 0.14507073 -0.057389915 0.102848195 0.034872275 -0.04662702 -0.08345732 0.14160077 -0.037822098 -0.067866154 -0.024550272 -0.097139515 -0.08505518 -0.06205509 -0.102841996 -0.08853616 0.2819211 0.08807724 -0.09366654 -0.038258106 0.24895331 -0.0014260656 0.0700109 0.23184255 -0.026854891 0.12414541 0.10047048 -0.037437912 -0.18356228 -0.039842848 -0.008318544 0.1595712 -0.03258565 -0.31485316 -0.14832707 0.021639368 -0.048205473 -0.25768033 -0.026306523 0.09865096 0.16886371 0.139365 -0.020241817 0.101928234 -0.049181845 0.022105692 -0.2326426 -0.004488825 -0.03323486 -0.019632716 -0.06348078 -0.045812886 -0.055638593 0.13528232 0.16708349 0.08549164 0.075120814 -0.14298391 -0.114256844 0.022963615 -0.033899207 -0.039684583 -0.18984759 0.010724747 0.032040197
7 0.071397625 -0.26390415 0.13590059 -0.037691277 0.09844135 -0.104698926 0.15900038 -0.13974105 0.2391727 0.035415955 0.37441286 -0.11052914 0.09335562 -0.16640562 -0.027213214 0.05685121 -0.12746333 0.0796973 0.048497025 0.046157125 0.27565783 0.09711056 -0.007235953 -0.012746147 -0.2872155 0.06888305 -0.087909274 0.18474072 0.20403527 0.063149996 -0.19739148 0.01069104 0.057877053 0.010295338 -0.09170619 0.096959025 0.19736682 0.0745956 0.3657177 -0.15245564 0.029290264 0.12123291 -0.087349564 -0.29687282 0.09803152 -0.028640183 0.15062626 -0.34782314 -0.0051391944 0.063321516 0.24312855 -0.105421685 -0.012291969 0.17268206 -0.032856204 -0.06558849 0.12033383 -0.03095436 -0.288268 -0.025408074 0.08043948 -0.19432019 0.104062 0.0013872086 -0.01766073 -0.0546383 0.024629734 0.12857053 0.031936597 0.11882243 0.13637212 -0.021758616 -0.18960588 0.21592623 0.028220076 -0.18242064 -0.029348535 -0.081240684 0.11401327 0.36223802 0.10512412 -0.17902984 0.017245427 0.20191993 0.18081199 0.103772685 0.12418662 -0.30657515 0.17229226 0.056199342 -0.08622182 -0.0006120653 -0.06622479 0.032714177 0.24044733 -0.08934437 -0.17315459 -0.31963745 -0.08849847 -0.07304981 -0.21520591 0.104747355 -0.05127845 -0.09031184 -0.06445763 0.031189565 0.04762725 -0.09629269 0.0712539 -0.062400285 0.03712364 0.09713378 -0.003159224 0.13167438 0.09508675 -0.10675269 0.07097951 0.16559298 0.058278434 0.11297041 -0.006168015 0.034458846 -0.041901242 0.20061302 0.0476964 -0.14865176 -0.06547826 -0.029006781
9 0.0071665905 -0.09815419 0.063784614 0.004342707 0.067449175 -0.11304441 0.08918168 -0.0102503635 0.031918414 0.09169195 0.22331676 -0.10489269 -0.019673988 -0.120781034 -0.0001751923 0.0048421784 0.063236035 0.07164069 -0.028557993 0.14000353 0.20260216 0.09230635 0.07884268 0.089761324 -0.18114014 0.08544734 -0.11494311 0.084803656 0.05214527 -0.092291325 -0.19970518 -0.020949638 -0.00081526587 0.010106479 -0.11367479 0.06387891 0.24521284 0.0005207186 0.2901074 -0.09086515 0.0237333 0.14474624 -0.066731736 -0.186371 0.012915241 0.05504399 0.061644 -0.12862884 -0.0165108 0.028792912 0.11001941 0.008854187 0.17836815 0.14596117 0.03887165 0.023343163 0.09493819 0.002677313 -0.12677246 0.045976974 0.07723439 -0.13122967 0.09680096 0.06802321 0.06609369 -0.051156957 0.07328529 0.07804814 -0.0015841858 0.010990204 0.12917086 -0.04106682 -0.10689193 0.06888456 -0.039799128 -0.11458388 -0.053911265 -0.07221352 0.00799666 0.30417117 0.06810384 -0.120909736 -0.0077372123 0.19974063 0.05959576 0.084380955 0.15854037 -0.13443747 0.13089016 0.071119145 -0.036718868 -0.101445995 -0.044760052 0.0059429756 0.18260351 -0.07965677 -0.2414639 -0.22304401 -0.023307111 -0.04048201 -0.22819425 0.031620465 0.016519079 0.050818987 0.06082696 0.0008544667 0.063330606 -0.07892865 0.06502504 -0.14905804 0.009369643 0.0064228345 0.0025565624 0.015646227 0.025550902 -0.08701041 0.094728574 0.1540902 0.06966642 0.068219304 -0.08983747 -0.047739368 -0.010881799 0.07405759 -0.018937808 -0.16366807 -0.018051654 -0.011891031
6 0.04635468 -0.23812711 0.10210074 -0.019909322 0.101709545 -0.08078683 0.16149399 -0.13188241 0.20402907 0.03605361 0.34639704 -0.10241186 0.07814066 -0.16818768 -0.017228497 0.04789594 -0.10050888 0.06153665 0.030586338 0.039022982 0.24174708 0.09051466 -0.008692065 -0.007159175 -0.27003196 0.06523922 -0.0732229 0.17546545 0.18729085 0.04036692 -0.18318292 0.0023245679 0.034610458 0.0029136622 -0.10043588 0.09894196 0.17910077 0.060940165 0.3498516 -0.14678368 0.04027002 0.10799143 -0.07627546 -0.2781149 0.082619935 -0.023111302 0.13858697 -0.31956625 0.00080263213 0.045332372 0.23765165 -0.108475804 0.004724147 0.15977193 -0.024636498 -0.07384944 0.11151931 -0.046917975 -0.26147255 -0.020805359 0.083951004 -0.18043481 0.08796648 0.016840477 -0.024458667 -0.046978865 0.02654934 0.13916795 0.012563262 0.104964145 0.13511124 -0.022225356 -0.17632276 0.20336522 0.031239042 -0.15989803 -0.027599385 -0.082618155 0.11622799 0.34253475 0.1003505 -0.16671455 0.008910815 0.18344583 0.15913734 0.09123596 0.11737973 -0.26724616 0.17066781 0.03359415 -0.0602264 -0.0061765015 -0.052185535 0.027088098 0.22166564 -0.09084042 -0.16473249 -0.29954848 -0.090332694 -0.06475668 -0.18745859 0.0973712 -0.045576967 -0.07232493 -0.035365403 0.022663964 0.053634353 -0.09804959 0.08835426 -0.059566937 0.044485893 0.097318694 0.012960161 0.117474616 0.10700833 -0.09562777 0.06280755 0.16526045 0.06204346 0.093255594 0.0017851808 0.05338865 -0.026817614 0.19648069 0.043160625 -0.14272818 -0.039060853 -0.040559325
8 0.004608115 -0.13792744 0.07856186 -0.0013825097 0.06540004 -0.09783269 0.10960076 -0.06020086 0.07952478 0.064064756 0.25450686 -0.08567144 0.00916277 -0.1313709 -0.0058136466 0.024308443 0.005913411 0.06491092 -0.015313261 0.11046933 0.20642288 0.09444727 0.05373818 0.069817245 -0.19574872 0.092372485 -0.091411114 0.109482944 0.07932741 -0.06821044 -0.18817768 -0.03639277 0.016768172 0.0042576347 -0.10780001 0.08443475 0.22706822 0.0075534214 0.30984893 -0.10777792 0.024144113 0.13968924 -0.07154588 -0.20516239 0.035251014 0.042234514 0.08872505 -0.17723122 -0.004962284 0.010388263 0.15282507 -0.009483497 0.11643306 0.14305282 0.012104972 0.0008242243 0.09828193 -0.016968027 -0.15024093 0.023291372 0.07543038 -0.1425671 0.08471321 0.06704283 0.028808285 -0.031454545 0.064561434 0.0950828 0.004777771 0.045860786 0.13165797 -0.047398027 -0.11959909 0.10489118 -0.014077676 -0.09833003 -0.041994218 -0.06564717 0.05305583 0.2883767 0.07803797 -0.11746091 0.015246035 0.18658331 0.06565383 0.08046692 0.120336875 -0.17290339 0.12157931 0.04465789 -0.042905178 -0.052160945 -0.037355587 0.010014602 0.18581745 -0.08697629 -0.21282618 -0.22564119 -0.029286072 -0.0490474 -0.20642765 0.059207954 0.0035201374 0.02093062 0.039445296 0.021044446 0.06180223 -0.084477015 0.07554027 -0.11863878 0.02984283 0.038508877 -0.008334104 0.036980636 0.06502862 -0.09305746 0.07808167 0.12947337 0.05569426 0.06559475 -0.05252396 -0.008027981 -0.009973903 0.1007574 -0.010088145 -0.15448605 -0.027745742 -0.036371898
26 -0.008774921 0.017729769 0.03536483 -0.00016327531 0.041339353 -0.13000962 0.066840336 0.08360577 -0.08397949 0.1384402 0.161263 -0.12214865 -0.083425455 -0.063100785 0.029639177 -0.0014838616 0.1585078 0.061989605 -0.07909856 0.20598173 0.18685843 0.117666714 0.13520262 0.13531122 -0.13908586 0.07938011 -0.14774525 0.0153937135 -0.0368941 -0.14418302 -0.25341034 -0.037186332 -0.027732296 -0.0061348765 -0.11417259 0.043612506 0.29804075 -0.0032167886 0.23534793 -0.08127329 0.026334267 0.15453231 -0.04753069 -0.12297182 -0.032909002 0.120544665 -0.009348962 -0.031109873 -0.018702744 0.028295958 0.026198894 0.104518116 0.3073654 0.121512264 0.11295965 0.08096843 0.11938956 0.07749771 -0.040032998 0.05925953 0.04014971 -0.11806942 0.09818127 0.0671924 0.14014998 -0.055068966 0.09922256 0.036992934 -0.051937725 -0.07522277 0.13932046 -0.031005215 -0.07354173 -0.0019563732 -0.096268624 -0.10117544 -0.07133067 -0.09603834 -0.06897662 0.28474003 0.09370335 -0.10378233 -0.04414489 0.24773285 0.012274606 0.076988794 0.22123572 -0.048525132 0.13129574 0.09744561 -0.037931312 -0.16751726 -0.027601793 -0.004713794 0.15631486 -0.04229428 -0.3053589 -0.16002384 0.0058004586 -0.049988467 -0.2544746 -0.008485377 0.080014706 0.1538424 0.11993455 -0.027319657 0.096318305 -0.05713422 0.016713727 -0.21786663 -0.010959181 -0.034895614 -0.023710316 -0.04647599 -0.03714571 -0.051705964 0.129465 0.18006001 0.08956219 0.07553106 -0.13758639 -0.11236451 0.011849904 -0.008105346 -0.040138498 -0.18993157 -0.0016829462 0.023617622
25 -0.0028245447 -0.013521083 0.05693886 -0.0028059366 0.05248439 -0.13438833 0.0734117 0.066115044 -0.053477585 0.12073523 0.18202896 -0.120995596 -0.06936582 -0.07151515 0.03170121 -0.01052406 0.12621273 0.074345335 -0.06710722 0.19428898 0.20228215 0.10619489 0.12321223 0.12127939 -0.16045818 0.08692059 -0.13459389 0.049444128 -0.014104392 -0.12953115 -0.24572885 -0.034385238 -0.019954 0.003145577 -0.11790244 0.043018546 0.28403673 0.0053053075 0.2552472 -0.08829236 0.020601392 0.1675089 -0.058637522 -0.13761814 -0.018264163 0.108394004 0.018898604 -0.059793767 -0.011528717 0.025447719 0.045895807 0.07838059 0.2714932 0.1385694 0.10316543 0.073239714 0.10622358 0.05856348 -0.067393 0.056369144 0.05327942 -0.12235197 0.10242156 0.070263 0.12422758 -0.048279688 0.088545755 0.046908237 -0.032347865 -0.052209377 0.13598605 -0.034562007 -0.083645836 0.008346517 -0.077693604 -0.096732244 -0.06031764 -0.09096206 -0.052625965 0.28860286 0.09059745 -0.10754923 -0.025922108 0.23044842 0.023440856 0.06806227 0.20902081 -0.08126124 0.12642886 0.08206465 -0.04109536 -0.15299387 -0.039171036 -0.0021587461 0.16699645 -0.052034333 -0.30182 -0.18875968 0.0013253784 -0.050759997 -0.26399288 0.003662057 0.0750599 0.1288629 0.09757197 -0.0093416395 0.08524116 -0.07536968 0.03293952 -0.20259494 -0.008131668 -0.023577437 -0.021100486 -0.027458444 -0.019691398 -0.056809336 0.12189435 0.1727252 0.0931188 0.076123 -0.13042226 -0.090029895 0.013734693 0.01920131 -0.03565642 -0.18999408 -0.005512613 0.010992467
29 -0.005404681 -0.050466336 0.064644784 0.0090995515 0.051771194 -0.12431528 0.09121589 0.021245284 -0.022101494 0.107484594 0.21152397 -0.106914096 -0.051501177 -0.09215693 0.020638224 -0.003040642 0.1019068 0.06229992 -0.049949814 0.1699487 0.19367202 0.10792375 0.09039506 0.10996191 -0.17021874 0.09542562 -0.12789372 0.07250788 0.013562686 -0.12340804 -0.21669042 -0.030971417 -0.014355604 0.00019529587 -0.11936841 0.051086295 0.27357695 -0.0037115875 0.27991238 -0.08663269 0.016784368 0.16017087 -0.053467758 -0.16293778 0.000966312 0.08281997 0.033173874 -0.08021085 -0.008795065 0.030032605 0.080282964 0.051400386 0.22907344 0.13310687 0.06265013 0.04792708 0.1020135 0.024986528 -0.08858191 0.05869987 0.07171173 -0.13809626 0.085718915 0.07617216 0.09979055 -0.04925044 0.08009893 0.064025074 -0.022343358 -0.019563992 0.13730446 -0.044249374 -0.09630084 0.033426646 -0.048519015 -0.10481289 -0.059224155 -0.08036453 -0.014069754 0.3005674 0.07216867 -0.121863954 -0.01999702 0.22045356 0.023356274 0.07576051 0.18203487 -0.10050497 0.13391884 0.079913095 -0.039641444 -0.12739381 -0.043071713 0.0028330595 0.17064399 -0.06917325 -0.27246982 -0.20659773 -0.016926724 -0.03615814 -0.2524342 0.017943224 0.046158373 0.097625874 0.08363955 0.0007478803 0.08547665 -0.08153968 0.048475266 -0.17493154 0.010305228 -0.0077974703 -0.0037202332 -0.016657455 0.010556715 -0.07497155 0.10047123 0.16574451 0.0768806 0.055844333 -0.109452166 -0.067247 0.0024476356 0.04763633 -0.036677368 -0.17740275 -0.007607742 -0.007216416
20 -0.010271465 -0.10486159 0.06290299 2.3272692e-05 0.065985605 -0.11067543 0.09678901 -0.025616856 0.03499942 0.08883811 0.24630362 -0.09098686 -0.010608228 -0.12479511 0.008388217 0.008266114 0.0569984 0.069579005 -0.023054307 0.13124739 0.19580089 0.10200531 0.06686823 0.08886779 -0.18189174 0.090028845 -0.103852 0.0908838 0.042663556 -0.09265933 -0.19746584 -0.038935285 0.0065841284 0.008846146 -0.11667797 0.07612632 0.250144 0.0064559444 0.3022684 -0.10731356 0.024703082 0.14224802 -0.06936396 -0.189406 0.019646855 0.057156105 0.06823518 -0.13306184 -0.003138626 0.026258286 0.11765348 0.016341256 0.17027411 0.14735211 0.03857079 0.016790472 0.09392243 0.0007671869 -0.12645383 0.049136188 0.07613085 -0.13763772 0.0898576 0.05950955 0.06339221 -0.034766603 0.068504274 0.08514002 -0.009536785 0.012862716 0.13727514 -0.053227663 -0.1030422 0.07444241 -0.035156358 -0.10430969 -0.049882453 -0.07659529 0.023728764 0.30402514 0.073576234 -0.12064261 -0.010645502 0.21454291 0.04597373 0.08335116 0.15505378 -0.14892052 0.12747334 0.053202335 -0.04218245 -0.08406319 -0.03673249 0.007802168 0.18489122 -0.07716724 -0.24545743 -0.2197995 -0.02520358 -0.047953364 -0.23878294 0.030877654 0.026555244 0.05627227 0.05581075 0.0060327644 0.07087814 -0.08242054 0.06468917 -0.14796071 0.016301556 0.019066952 -0.0022309043 0.018629536 0.030342275 -0.0911263 0.08412445 0.1496454 0.058623686 0.06581912 -0.08837149 -0.03742428 -0.002539232 0.07306379 -0.02452015 -0.169537 -0.011343867 -0.015927315
31 -0.01646179 -0.000270142 0.044515744 0.0023729764 0.05412612 -0.13287717 0.07434942 0.0709049 -0.072859876 0.12012091 0.18170184 -0.11123188 -0.07033583 -0.08421181 0.032405388 -0.009707741 0.16272084 0.06305575 -0.062365472 0.2116644 0.1837747 0.102638274 0.1250742 0.13698651 -0.13581492 0.09772738 -0.13413389 0.040230967 -0.02238333 -0.15196602 -0.2255443 -0.038083494 -0.023884878 0.003755679 -0.12395114 0.038766626 0.28217828 -0.011574168 0.24163784 -0.085100405 0.0268405 0.16812769 -0.051606838 -0.12887096 -0.017697336 0.1049451 0.0117876865 -0.029270044 -0.0059779305 0.022712313 0.041249 0.09019474 0.28513846 0.12791735 0.095613085 0.07365997 0.11054863 0.058513623 -0.042572513 0.058817137 0.05400944 -0.1170466 0.09199098 0.06918548 0.13037731 -0.049731065 0.10204729 0.04060114 -0.028554711 -0.047490213 0.13662341 -0.05197059 -0.06895813 -0.002746576 -0.08051475 -0.083223976 -0.05222623 -0.08656449 -0.057294633 0.2821949 0.07335219 -0.10123472 -0.038844142 0.22815551 0.009635723 0.077973135 0.19302104 -0.06369153 0.11625084 0.08771508 -0.038118057 -0.15978123 -0.0349225 -0.006812782 0.14884813 -0.057529036 -0.28726122 -0.1620574 0.011571005 -0.037858024 -0.25640178 -0.011860953 0.068268344 0.136504 0.12544079 -0.0117274625 0.08027235 -0.073349535 0.036010247 -0.2065443 0.0036532753 -0.028027905 -0.019152798 -0.05270431 -0.016466541 -0.0677672 0.115255594 0.15065986 0.07716866 0.056112595 -0.13861574 -0.09717568 0.014693412 -0.0054937415 -0.053754475 -0.17975195 -0.005203856 0.0065040556
11 0.034862816 -0.17989111 0.103233285 -0.012665383 0.08925799 -0.09353903 0.13703078 -0.09696014 0.12759236 0.05426536 0.29519498 -0.106437996 0.029193996 -0.14339116 -0.015841363 0.033573523 -0.047681876 0.07370169 0.012205854 0.09380511 0.2395819 0.10053726 0.0314435 0.035982806 -0.23962942 0.080035955 -0.09373687 0.14729272 0.11867197 -0.009485609 -0.19345556 -0.013406217 0.031046405 0.0051842122 -0.099298 0.071254194 0.2060224 0.044544946 0.3226139 -0.11844181 0.020932352 0.12668243 -0.082706966 -0.23715901 0.060661223 0.021123135 0.11942828 -0.24039362 -0.020165691 0.044593826 0.1776016 -0.04408104 0.07548116 0.1556514 -0.0076139965 -0.028584752 0.11032461 -0.023751745 -0.20426553 0.00045920085 0.08433874 -0.1681399 0.10428705 0.031008102 0.0073503857 -0.052510485 0.043239888 0.11226075 0.009636121 0.07579577 0.13097592 -0.033336546 -0.14277975 0.15258701 -0.0040051886 -0.1332842 -0.047105495 -0.07700411 0.06528985 0.3227578 0.096481375 -0.1449434 0.0028442792 0.1966241 0.11393168 0.08623844 0.13537574 -0.2250836 0.15299742 0.051546797 -0.058868743 -0.04205502 -0.052185737 0.01882743 0.2040093 -0.085383736 -0.19956253 -0.26471657 -0.06442887 -0.06603077 -0.21719018 0.06484154 -0.01509427 -0.021277538 -0.010323017 0.020858157 0.06540087 -0.08924437 0.06545719 -0.105609626 0.024588518 0.05064276 -0.0019581167 0.066929474 0.06968356 -0.10204564 0.08884508 0.16025463 0.05823823 0.0882496 -0.04051714 0.01259684 -0.02372302 0.14880797 0.0107331965 -0.16058138 -0.04370357 -0.020418996
5 0.032271277 -0.1858963 0.10617743 -0.023210183 0.081787005 -0.098575145 0.124605805 -0.10407596 0.14790893 0.054066267 0.3077204 -0.09244456 0.042253003 -0.13845463 -0.02084048 0.040316693 -0.04412489 0.0673904 0.021982666 0.07311368 0.23472728 0.096117295 0.030650087 0.019221354 -0.23509367 0.082193404 -0.095356725 0.1366713 0.13494015 -0.009824518 -0.18768546 -0.005609912 0.021140847 0.015224151 -0.09542325 0.08404436 0.19981784 0.033426955 0.31890875 -0.12554975 0.021083264 0.1212447 -0.07216823 -0.25124496 0.059558075 0.0026430897 0.11099961 -0.2545228 -0.012629281 0.046241984 0.19419779 -0.063046835 0.051376596 0.15273595 -0.014153821 -0.03808745 0.10127208 -0.02138939 -0.2161809 0.003468962 0.07904923 -0.16042568 0.09213058 0.025942445 0.012073458 -0.04888326 0.048896357 0.11456713 0.020161776 0.077095956 0.1267618 -0.029596288 -0.15106438 0.14486873 0.0053343205 -0.13913211 -0.03885965 -0.0745547 0.06605191 0.31937024 0.08703753 -0.1462469 0.008165841 0.19656676 0.12241067 0.08036474 0.12074951 -0.23398921 0.13993667 0.047379453 -0.060888294 -0.043879285 -0.05724186 0.013983243 0.21301195 -0.08896574 -0.18581966 -0.27266654 -0.062884666 -0.058925916 -0.20409685 0.07330621 -0.021267487 -0.025672697 -0.005500548 0.014472442 0.059297483 -0.08421204 0.07662553 -0.0966968 0.022909667 0.05646216 0.0054753213 0.07502891 0.06760665 -0.090899505 0.072108224 0.1594437 0.06425934 0.080662 -0.03308255 0.017853353 -0.026709344 0.14869085 0.021144433 -0.14645304 -0.051779337 -0.025019245
15 -0.0031178792 -0.012260938 0.047109514 0.000784364 0.05626848 -0.12537083 0.07759007 0.06979183 -0.059169933 0.11468182 0.18041125 -0.107731976 -0.069021866 -0.07898777 0.036328875 -0.002293726 0.15439492 0.0586718 -0.06734438 0.19774972 0.18831119 0.10244763 0.11014821 0.11911383 -0.15463284 0.09118316 -0.13585502 0.03254521 -0.015949614 -0.13508756 -0.2312109 -0.03649755 -0.01907779 0.006737635 -0.12287299 0.0433685 0.27148333 -0.011027915 0.24105749 -0.08691747 0.024095807 0.15895215 -0.05623648 -0.12918498 -0.016093964 0.08874206 0.011786945 -0.045118988 -0.018933991 0.022283398 0.047564667 0.072743684 0.27711314 0.13086613 0.09737895 0.058238212 0.1121229 0.05686071 -0.05463793 0.053630274 0.050317317 -0.11837794 0.083747715 0.06850797 0.116751865 -0.05408771 0.08859349 0.05530257 -0.042776126 -0.053526152 0.14014257 -0.040354848 -0.076773785 0.002399982 -0.07375044 -0.08830604 -0.060379386 -0.09901743 -0.05224685 0.2742491 0.07385666 -0.11337438 -0.027727867 0.2320059 0.012054745 0.06749092 0.19608577 -0.068142936 0.13049799 0.08819634 -0.041771837 -0.15132678 -0.03952681 -0.0033484935 0.15364087 -0.051181395 -0.27738634 -0.16692945 0.008152373 -0.04869965 -0.2413636 -0.009823202 0.06356678 0.1177572 0.11092659 -0.014861752 0.08271448 -0.0630059 0.0419083 -0.19311439 -0.0010920822 -0.013673462 -0.014108612 -0.037876237 -0.020128556 -0.057402857 0.10953931 0.1591649 0.08661171 0.06418302 -0.124707095 -0.09783468 0.017289095 0.008400248 -0.046113282 -0.17709792 0.0044405204 0.013674376
27 -0.011525152 0.02207571 0.026159164 0.01989093 0.044305257 -0.13090974 0.06426806 0.091209546 -0.10153307 0.1384471 0.14459844 -0.11845771 -0.08507238 -0.056331106 0.042343818 -0.009527016 0.17905991 0.056608923 -0.074303605 0.22681056 0.17615871 0.10435521 0.12821995 0.13811208 -0.13862239 0.09022316 -0.14554691 0.026713904 -0.052630186 -0.1638015 -0.23376718 -0.040061947 -0.022779403 0.0082858335 -0.121561 0.034472883 0.28371274 -0.021571515 0.21690704 -0.06610678 0.014554673 0.17003894 -0.045975048 -0.11128837 -0.035138782 0.11047538 -0.0047535263 0.002173914 -0.017211363 0.032138392 0.027315183 0.1038927 0.31204376 0.114410274 0.10226058 0.08679772 0.110082686 0.06599973 -0.027732216 0.07684007 0.042821247 -0.1111164 0.09526555 0.07486282 0.14330712 -0.047116186 0.10192882 0.028942278 -0.04367694 -0.07720878 0.13372274 -0.04266305 -0.060817894 -0.02272895 -0.07910439 -0.09072523 -0.05346954 -0.10190761 -0.07814737 0.27109966 0.07231521 -0.0981027 -0.04809553 0.22404607 -0.01289149 0.06314337 0.21650097 -0.035421476 0.12383383 0.09276297 -0.02562253 -0.18017755 -0.02406863 -0.007954975 0.14344361 -0.03759324 -0.30128282 -0.16464837 0.01597082 -0.03418687 -0.2562187 -0.02629246 0.08826748 0.14630727 0.12798308 -0.018739844 0.08400885 -0.05301768 0.029016864 -0.20266911 -0.014714175 -0.037691046 -0.010682347 -0.061887395 -0.038906634 -0.04910429 0.1279978 0.1606008 0.09008575 0.059419878 -0.14642921 -0.11819381 0.012110909 -0.014343803 -0.045649573 -0.18337557 0.0018934647 0.020964362
21 -0.009360832 0.0027397142 0.050244775 0.0063775466 0.043896463 -0.12533812 0.07096034 0.074188046 -0.076780155 0.122001596 0.17440931 -0.108019926 -0.08403734 -0.08184451 0.032875724 -0.0083536245 0.16565444 0.06289721 -0.06964425 0.20867313 0.18766038 0.10718425 0.132705 0.13112438 -0.14650999 0.08705731 -0.14862166 0.026451154 -0.031484164 -0.1566863 -0.22458638 -0.032659642 -0.026000684 -0.0022792153 -0.1239857 0.034685466 0.29489037 -0.014133548 0.24165557 -0.08447228 0.030930059 0.16662858 -0.047621652 -0.13113426 -0.021593286 0.102069646 0.01099189 -0.028276002 -0.011441675 0.029628467 0.044554964 0.083893225 0.2943253 0.12873411 0.09982181 0.080049284 0.10835771 0.06617205 -0.04569138 0.068195656 0.05290857 -0.12198972 0.088142395 0.07708776 0.12993254 -0.05331848 0.1003347 0.045067143 -0.037587423 -0.06301287 0.14412314 -0.041231792 -0.065243796 -0.0013127921 -0.08228783 -0.08712272 -0.056923784 -0.10180189 -0.051689416 0.2876169 0.08589621 -0.10731666 -0.041219413 0.23671167 0.0019233375 0.08063636 0.20795996 -0.05298635 0.12768464 0.09213135 -0.038324576 -0.15925847 -0.02685305 -0.012913248 0.1559106 -0.050005566 -0.29120365 -0.16530381 0.00742954 -0.039515458 -0.26014602 -0.004841539 0.0819792 0.14025594 0.11801236 -0.018148439 0.092886195 -0.058398042 0.03627787 -0.21173008 -0.004369271 -0.031017872 -0.021161398 -0.042187545 -0.026119785 -0.066328324 0.12615822 0.1702342 0.08986099 0.065320164 -0.14200494 -0.10692093 0.017187566 -0.014008705 -0.049607866 -0.17906521 -0.0020614273 0.0075450502
17 0.057312205 -0.25487882 0.109588 -0.02510916 0.10355629 -0.09392648 0.15312387 -0.13210285 0.21905905 0.03317578 0.36396798 -0.09789014 0.06755188 -0.17005779 -0.019841157 0.058559645 -0.10672394 0.06512256 0.039602444 0.043943558 0.25255907 0.09676478 0.0070114057 -0.004710358 -0.27190176 0.07589157 -0.079035476 0.18514805 0.18275005 0.042112693 -0.19232585 -0.011687965 0.05266829 0.0047635315 -0.09388528 0.093559764 0.18218231 0.051498756 0.36282474 -0.1431592 0.028806753 0.10759371 -0.09072409 -0.29035467 0.0944644 -0.027089003 0.14993428 -0.31785184 -0.0094492 0.058618996 0.22816965 -0.104707725 0.00756069 0.1748566 -0.023101319 -0.06770333 0.115026884 -0.03750454 -0.26960665 -0.008093988 0.07774655 -0.18032986 0.10363692 0.024242215 -0.024682352 -0.044335198 0.038101647 0.14234091 0.010642401 0.116329886 0.14095508 -0.028726153 -0.1656879 0.19694504 0.024576511 -0.16831854 -0.037700165 -0.07656233 0.10565004 0.34071216 0.10553857 -0.17039952 0.00853495 0.19763394 0.1641134 0.09530041 0.11677469 -0.2781427 0.16389292 0.047569394 -0.07358097 -0.009115829 -0.05335324 0.023387168 0.23002899 -0.0910422 -0.16235358 -0.30131167 -0.07479071 -0.0740845 -0.19608888 0.09115151 -0.050465632 -0.069797635 -0.046707414 0.022153502 0.055495076 -0.08768042 0.07575771 -0.0743895 0.03254792 0.09696817 -0.004062079 0.12430856 0.09771599 -0.10081238 0.065685205 0.15358871 0.061486192 0.10341541 -0.012921304 0.041716564 -0.031791173 0.19997346 0.04684402 -0.15142795 -0.04350619 -0.041391145
23 -0.0048657954 -0.00905287 0.051401667 -0.008233533 0.047557842 -0.12861894 0.06885753 0.064076334 -0.054501023 0.116055965 0.18172601 -0.1079923 -0.07025904 -0.078240246 0.025010217 -0.00020856266 0.13755435 0.06458157 -0.05756723 0.18562354 0.17541252 0.09683148 0.10818999 0.11818225 -0.15014777 0.075139076 -0.1275073 0.04277743 -0.016054563 -0.1258456 -0.22120748 -0.031509183 -0.022991674 0.00029359377 -0.11327732 0.04819068 0.2672131 -0.002930418 0.23503883 -0.08698268 0.027048064 0.15373446 -0.047527175 -0.13482462 -0.019778067 0.08737377 0.024067452 -0.06095269 -0.017320458 0.027449608 0.061832428 0.06765779 0.26141214 0.118693426 0.098596886 0.051444553 0.114671186 0.05424438 -0.059586674 0.049070638 0.054123405 -0.11165375 0.08599908 0.0517521 0.11610551 -0.052115433 0.08090544 0.05087194 -0.037765134 -0.050424986 0.13998134 -0.03831472 -0.076948255 0.007730659 -0.07361163 -0.097728215 -0.05643613 -0.096522555 -0.05245503 0.2790981 0.08292749 -0.108584255 -0.028915906 0.21350329 0.028100453 0.0771956 0.19448887 -0.078870945 0.12085611 0.0902456 -0.042294886 -0.14002831 -0.026128696 -0.00073915196 0.15097626 -0.042098217 -0.27247226 -0.17689995 0.009846051 -0.05132881 -0.23877221 -0.0010263504 0.055625807 0.11163063 0.10546282 -0.017398203 0.07260338 -0.057384335 0.028449379 -0.19310957 -0.0015291821 -0.01564419 -0.011109966 -0.02763518 -0.00942748 -0.06600383 0.1159939 0.16075918 0.08157857 0.06644498 -0.119190745 -0.09001756 0.0033503373 0.0050329887 -0.0322829 -0.1728609 0.0013267061 0.012123823
10 -0.005601347 -0.020807534 0.0513463 -0.0014131349 0.051549934 -0.11977137 0.07249947 0.049057294 -0.050169557 0.11843958 0.17570303 -0.102534056 -0.0667318 -0.077889346 0.028929302 -0.0036694391 0.13040939 0.06239085 -0.05087682 0.18968503 0.17908172 0.096581034 0.099042 0.12433534 -0.14814827 0.087875195 -0.12763494 0.05125471 -0.0051916977 -0.12674613 -0.21027032 -0.029888453 -0.014821686 0.009695979 -0.11161432 0.045767855 0.26797017 -0.01403229 0.2409794 -0.073226444 0.011836918 0.15129489 -0.053551953 -0.13329019 -0.009273421 0.08202839 0.025055215 -0.051248148 -0.020008538 0.018596537 0.057366744 0.061108436 0.24631912 0.12063309 0.085782066 0.06451684 0.101363234 0.043801706 -0.062775396 0.05560298 0.047666986 -0.11571837 0.09041254 0.070836805 0.11162457 -0.039882302 0.09084988 0.04647751 -0.030151999 -0.041052926 0.13529503 -0.03626963 -0.07951283 0.01504371 -0.0619673 -0.08880834 -0.05304954 -0.08966879 -0.02992411 0.26409438 0.067022815 -0.107770205 -0.031097967 0.20867065 0.0077126757 0.070478275 0.18002266 -0.07537539 0.12203413 0.08309511 -0.02894465 -0.13659552 -0.02516319 -0.00401833 0.16099209 -0.05042194 -0.27714536 -0.18084955 0.010354802 -0.03751647 -0.23819275 0.0061731776 0.051655784 0.10461737 0.09455799 -0.002793938 0.07417917 -0.07053705 0.033121444 -0.17930499 -0.00057202217 -0.023713643 -0.014191874 -0.030777743 -0.0070364177 -0.06623161 0.1114209 0.15372904 0.073356286 0.060492698 -0.11354719 -0.08983834 0.0025614123 0.020236228 -0.044248205 -0.16901256 -0.010729522 0.011591813
16 -0.018556712 0.020177174 0.03169598 0.010818317 0.049660873 -0.12664242 0.060139682 0.10031881 -0.099345386 0.13372518 0.14536373 -0.11457391 -0.092556685 -0.055662688 0.037204448 -0.020915275 0.18818618 0.06995878 -0.08820602 0.22063805 0.1716234 0.112912156 0.1426452 0.14133604 -0.12697999 0.09342294 -0.14358318 0.011862135 -0.051761124 -0.16671477 -0.24033642 -0.03702128 -0.027870199 0.009935152 -0.123096675 0.035842467 0.2947647 -0.027882338 0.21979474 -0.06750793 0.01391284 0.17035624 -0.043943718 -0.11889181 -0.03973917 0.110908575 -0.014120294 -0.0011117111 -0.0072870897 0.021631274 0.017588206 0.11455365 0.32786885 0.13042292 0.10863406 0.093208246 0.10713117 0.07370378 -0.020032609 0.07337124 0.051145155 -0.11754111 0.095654786 0.08042749 0.14849547 -0.045306418 0.10485565 0.03945538 -0.053456053 -0.07897487 0.14334007 -0.047232702 -0.061465435 -0.023947014 -0.08286559 -0.092737205 -0.06330082 -0.100045234 -0.08130371 0.27442998 0.08207435 -0.10435987 -0.04274993 0.2436122 -0.011404036 0.06775924 0.22426875 -0.032766134 0.12102004 0.10508561 -0.024172066 -0.1750947 -0.02896925 -0.01239566 0.15823177 -0.03894998 -0.31265432 -0.16373181 0.016507225 -0.046399612 -0.25496754 -0.028281545 0.08628608 0.16052675 0.13736242 -0.019247372 0.08457844 -0.056902114 0.030465852 -0.21561936 -0.004342525 -0.03676829 -0.0137715945 -0.051526822 -0.03743406 -0.05515829 0.12487748 0.15829968 0.09245405 0.05825163 -0.15114024 -0.119612806 0.026201177 -0.019699905 -0.04836421 -0.18631612 0.004640474 0.021905571
22 -0.0004374527 -0.14283493 0.079092406 -0.004126225 0.07303839 -0.09689032 0.114134334 -0.059565734 0.06914416 0.08074708 0.27579066 -0.09782561 0.0050452985 -0.12448399 -0.012794688 0.017600447 0.0052317204 0.07297922 -0.013679173 0.12061401 0.22324468 0.08594197 0.046333686 0.071924046 -0.2134758 0.082894415 -0.11092099 0.112297684 0.07952322 -0.064054005 -0.19291312 -0.023826817 0.017289465 0.0011808919 -0.10089014 0.07210241 0.23045999 0.013683186 0.3166793 -0.11368534 0.027781095 0.14647846 -0.0813287 -0.21873054 0.029546436 0.043335803 0.088938326 -0.18588498 -0.0036068303 0.018380059 0.1562018 -0.012522744 0.12347881 0.15415794 0.013282298 -0.0023165413 0.09350476 -0.014190559 -0.16138157 0.034827553 0.08677689 -0.15719074 0.09317858 0.0682506 0.031040628 -0.033983417 0.057034656 0.10693121 0.00586997 0.039165087 0.1256512 -0.05243042 -0.12246798 0.105420366 -0.013149379 -0.1158455 -0.051315274 -0.07986038 0.0472077 0.3119369 0.079089224 -0.1303969 0.009520221 0.19935839 0.07931175 0.08481742 0.13276187 -0.17932747 0.13126726 0.046700124 -0.04736799 -0.06075015 -0.04665719 0.016179312 0.1941866 -0.09665475 -0.22441454 -0.23775268 -0.037699707 -0.050004747 -0.23121324 0.05909086 -0.0028457243 0.013831732 0.031402156 0.027750894 0.06722045 -0.08485701 0.082067594 -0.13970833 0.030086907 0.03602601 0.0029593133 0.030551888 0.068277486 -0.09846108 0.0913615 0.15526414 0.062686734 0.072590366 -0.059996825 -0.010185516 -0.008689335 0.1098638 -0.017832676 -0.15843415 -0.02259199 -0.03653654
13 0.008973367 -0.17150478 0.09304007 -0.012610122 0.0708982 -0.094930656 0.12512402 -0.09293723 0.11811935 0.058018364 0.29328746 -0.08587264 0.031049522 -0.14645945 -0.018649139 0.026242133 -0.027102603 0.07528458 0.0018480436 0.094306335 0.21606079 0.08551374 0.03208714 0.051372804 -0.22183648 0.08146472 -0.08921506 0.13428986 0.10195566 -0.031235935 -0.17219749 -0.028185617 0.018109052 0.010808506 -0.1049747 0.086185485 0.21448047 0.02325039 0.32955852 -0.11400815 0.02442861 0.13314469 -0.071652986 -0.23244078 0.049354922 0.01848715 0.10905821 -0.2153785 -0.00093408657 0.019539779 0.17389822 -0.050410807 0.07276757 0.15220328 -0.012365765 -0.015610667 0.08580883 -0.037719592 -0.18509465 0.025979698 0.084599786 -0.14980356 0.077800885 0.049023006 0.0071794093 -0.03344051 0.039763942 0.09881586 0.010935877 0.062281154 0.12841688 -0.059403755 -0.13725588 0.12727435 0.00056024943 -0.12243202 -0.030878702 -0.07261995 0.076035894 0.31319588 0.07687874 -0.12535973 0.022627352 0.18684517 0.08369733 0.083601795 0.108828284 -0.20688988 0.13864581 0.033532552 -0.051304135 -0.041075792 -0.04729773 0.02036973 0.2009408 -0.09603018 -0.20218809 -0.2433762 -0.05291751 -0.04784138 -0.21839002 0.068062805 -0.0122594135 -0.0066401423 0.009963874 0.03246745 0.060826205 -0.09617749 0.0800646 -0.10787172 0.031907752 0.05414214 0.009555504 0.060232643 0.084235094 -0.1049515 0.073142536 0.1324512 0.049151026 0.059793852 -0.04040938 0.010903509 -0.024826914 0.137474 -0.007671075 -0.15127838 -0.034680545 -0.04670578
19 -0.008905795 -0.012853197 0.04820184 -0.0010713749 0.054703135 -0.12118746 0.07311955 0.062203243 -0.05372702 0.119366474 0.17825319 -0.111847535 -0.06563493 -0.08106157 0.026473591 -0.0036251096 0.135406 0.06811826 -0.06116607 0.18916573 0.18278939 0.10224352 0.109577954 0.11108121 -0.15048128 0.07680756 -0.1310673 0.042011544 -0.02050202 -0.122719474 -0.22305962 -0.03457324 -0.017716119 -0.0013718789 -0.11667933 0.037112527 0.26837805 -0.011098376 0.2340571 -0.08967161 0.032087896 0.15055385 -0.055695854 -0.13093218 -0.022023022 0.089445785 0.018586952 -0.060187105 -0.016516043 0.022409553 0.060421143 0.07863607 0.2565885 0.12636642 0.092230186 0.057040088 0.11314339 0.05419851 -0.056429822 0.061807916 0.04361755 -0.11669217 0.09505109 0.06155829 0.104001336 -0.047888745 0.08830492 0.05024832 -0.036224402 -0.036335807 0.13379271 -0.03335573 -0.07807285 0.019441826 -0.07349666 -0.098411374 -0.056732394 -0.097535595 -0.046771206 0.2736091 0.082462765 -0.10224924 -0.026622849 0.21929005 0.020247515 0.0725561 0.197255 -0.06580837 0.11932715 0.08261115 -0.041419055 -0.14428316 -0.03792933 -0.0047417902 0.1518285 -0.050820846 -0.27121294 -0.16907889 -0.005305341 -0.042761587 -0.23413278 0.004924532 0.06296355 0.12210969 0.10941898 -0.012000397 0.08367421 -0.06880148 0.030940777 -0.18806931 0.0022295674 -0.014181326 -0.023555346 -0.025388166 -0.017487187 -0.055274047 0.11654883 0.15170448 0.080767736 0.07217703 -0.123874836 -0.09036428 0.019224327 0.010013052 -0.025924096 -0.17638768 -0.0050555915 0.017235579
18 -0.00573483 -0.124758124 0.06682011 -0.011226391 0.057809938 -0.0901449 0.10242358 -0.055925302 0.068797044 0.07028961 0.25043452 -0.08701158 0.0009837416 -0.12754601 -0.008805321 0.012160791 0.025500305 0.07179811 -0.011065424 0.10916962 0.20054802 0.08464456 0.044938665 0.06867952 -0.19292198 0.08807603 -0.103848 0.099315256 0.07536654 -0.07151448 -0.17313056 -0.031064937 0.0028382733 0.00058570085 -0.09965773 0.0807434 0.21392559 0.0034872734 0.2907792 -0.09804358 0.023129886 0.14267486 -0.07255563 -0.20103507 0.031454913 0.040747553 0.08341198 -0.16492963 -0.010349575 0.009603795 0.14112073 -0.012589067 0.122624226 0.13742898 0.021868268 0.004293421 0.086267136 -0.012698844 -0.1415209 0.025049403 0.08452099 -0.14084825 0.07280851 0.063609764 0.04225022 -0.032570995 0.05907397 0.08669948 0.0006391052 0.027838102 0.11623062 -0.061993662 -0.116310894 0.09697911 -0.0119841555 -0.10366194 -0.03946045 -0.060079556 0.045694392 0.28222606 0.07239005 -0.11550165 0.0032763928 0.18271238 0.07110485 0.08117511 0.1196525 -0.16687533 0.1255113 0.04578955 -0.045942184 -0.053747576 -0.045609873 0.01409095 0.18684824 -0.086770855 -0.21355833 -0.22203483 -0.041016165 -0.042600412 -0.21682765 0.042591736 0.007956435 0.019932188 0.047707368 0.018287003 0.050730243 -0.09479453 0.07583001 -0.13298535 0.03080177 0.026282815 0.007257655 0.0305946 0.064085536 -0.083766185 0.0745436 0.12875132 0.050181888 0.060381334 -0.058103047 -0.008435257 -0.01426863 0.1001762 -0.02436327 -0.1572539 -0.018441003 -0.041941404
12 0.0070671905 -0.14786811 0.082915984 -0.012116113 0.07045306 -0.097559325 0.117808856 -0.06702642 0.09086947 0.06534587 0.26651293 -0.088498 0.010906328 -0.13104144 -0.004804371 0.01749094 -0.001984262 0.066036865 0.0035847814 0.09383711 0.20141554 0.08246986 0.033166673 0.061407138 -0.19888212 0.08451756 -0.089238875 0.11534942 0.08981856 -0.037114725 -0.17966326 -0.018399354 0.021481281 0.006966629 -0.092971474 0.07944979 0.2074724 0.014374048 0.29689467 -0.10785666 0.030628927 0.13732262 -0.0753337 -0.20421903 0.03356716 0.026264517 0.07986894 -0.18006434 -0.0038401359 0.018393116 0.15662034 -0.033743393 0.09699898 0.13678882 0.00585363 -0.015070328 0.080798805 -0.011326265 -0.1609985 0.024193484 0.07162463 -0.14138621 0.082077876 0.043498423 0.017119866 -0.038471803 0.041079734 0.090717584 0.004825711 0.04706276 0.118011214 -0.053696204 -0.12078105 0.1049227 -0.01601151 -0.112818174 -0.039226014 -0.0736091 0.048432443 0.2799396 0.07500982 -0.1266193 0.0053053945 0.18515518 0.08413474 0.068078324 0.12587178 -0.18215774 0.12774152 0.046934657 -0.045619175 -0.0423686 -0.0441518 0.016091933 0.18791541 -0.092020325 -0.20045081 -0.22733328 -0.040507674 -0.05074423 -0.20183685 0.051596183 -0.004618201 0.0049064793 0.028517062 0.016906517 0.05312144 -0.07836889 0.0760789 -0.11114421 0.029124763 0.035664428 -0.00075044046 0.035835307 0.056068595 -0.086718924 0.07533741 0.13653392 0.047116905 0.06549906 -0.04919117 -0.0049182284 -0.014352223 0.11291392 -0.013858232 -0.14456719 -0.022669408 -0.032924037
